5.760654108966023479e-01
-6.085783906534585341e-01
-1.637562609115987833e-01
1.914764800638981690e-01
-3.375025320536162443e-01
-7.113329191383699346e-01
-5.966825131806490212e-01
-6.422930747084589775e-01
8.051071955780368938e-01
8.208770580720998744e-01
5.987030174821124096e-01
9.471443365327345543e-01
-9.765876630410699200e-01
-6.340526547405955782e-02
-4.192734092137331281e-01
-5.838124964448696552e-01
5.504176746854387847e-01
-3.049961482483549702e-01
6.978090650145205576e-01
9.297524493311244420e-01
-5.522355939009682135e-01
4.897175957131949531e-02
2.875360820249850402e-01
8.751227834552315343e-01
-1.555217138271871580e-01
-5.945074064364062050e-01
-6.406001410735402413e-01
9.886866930873923209e-01
4.258203821846606729e-02
5.691289282584053311e-01
4.492939376302069743e-01
-1.423915590256970010e-01
9.454608794986720799e-01
-2.459260747533644764e-01
6.688591639427097224e-01
6.803678481630377473e-01
7.785258231834419895e-01
-9.551828649313680586e-01
1.380560919620417160e-01
4.874467927515064858e-01
-1.714469138144356641e-01
6.001553408879864993e-01
-2.658871530839335140e-01
-9.411038210550002336e-01
-1.422684280753072628e-01
-4.999805063060782651e-01
6.765152527127207271e-01
6.981823383333418676e-03
6.511034272085187702e-01
-8.363111608238715800e-01
6.226071296156265866e-02
3.897929056663516079e-01
2.885542686422284397e-01
3.651340973707506432e-01
4.688299347422566488e-01
-2.250247855906062355e-01
6.384793753282191897e-01
3.532685645390196694e-01
-8.613009702645484378e-01
3.856905092710594118e-01
-5.139278906530004853e-01
-4.239576952805057530e-02
9.268428681737237440e-01
7.412772268555976041e-01
-7.028281114753183179e-01
-3.313541873199052912e-01
-5.425863024623334141e-03
9.888366284511707072e-02
-4.559838361884001046e-01
7.249774973861911054e-01
-3.992399599929568055e-01
2.089668803604700642e-01
-5.220429959887766813e-01
6.953839165027742020e-01
-5.082507346875382304e-01
9.718213132071618077e-02
-4.178463582949694111e-01
5.083115216217894972e-01
9.831988669270219638e-02
1.465000580388624574e-01
-2.170247411865346976e-01
-2.804693548954584337e-01
-9.042025533667967796e-01
7.861058434129060135e-01
-8.554238734025063629e-01
-1.205229386713426720e-01
5.021941423514897362e-01
4.503169255462133869e-01
1.961898669658528327e-01
7.315730441892598357e-01
-7.922092874320054712e-01
-5.635650065669097764e-01
2.036017769354925289e-01
4.944117450746787767e-01
7.056156577827286114e-01
2.707736332942141111e-01
8.668053816033571835e-01
-8.392531749339344760e-01
2.724810539913149476e-01
8.678251889731283253e-01
3.668958238948092365e-01
9.058479056134696172e-01
-3.103946244380435537e-01
2.359155413924800548e-01
3.929873326344390794e-01
-5.713917104407926217e-01
-3.514068545473663097e-01
-6.232194077425594614e-01
-8.845666818539843490e-02
4.618213254235592480e-01
9.364647077788883500e-01
8.109006792009549880e-01
4.737067383229138784e-01
4.800375428560512692e-01
-5.408884255070314229e-01
2.401436934288634362e-01
-7.291314770215324703e-01
-1.386396265903182545e-01
7.984892553027962414e-01
-9.921955927042525047e-01
-7.340455884253747065e-01
4.676327535825191006e-01
-8.792077770061634823e-01
1.679746983947438821e-02
1.300067593462985727e-01
-8.212993366599716794e-01
5.484103593981712876e-01
5.711815420908450402e-01
-8.845193930911106062e-01
-6.975788161079505834e-01
-3.887674181087719116e-01
-7.958625539191757081e-01
-4.773263891278893833e-01
-7.069189532114412700e-01
7.032745731996412619e-01
-9.453094636522423322e-01
9.536300744307735222e-01
1.883603657956740562e-01
-2.094277911151833926e-01
-2.357448101272310304e-01
-9.127932668287124240e-01
-2.500554447170340033e-01
2.251607565687407941e-01
1.538394045397566412e-01
-2.114284746256016589e-01
9.724045681301345390e-01
9.353410351040878368e-01
6.723014780274212399e-01
-7.532432004349927102e-01
5.825697411971535455e-01
3.575391076590619388e-01
4.813386125584298014e-01
3.861792346314047997e-01
-1.246434007626764373e-01
-2.343923299160486362e-01
9.694049540558136169e-01
4.768301142860711384e-01
8.342991117135192258e-01
8.228218377854210619e-01
5.429724352454665670e-01
7.189157419695741957e-01
7.185530170994882670e-01
8.996547521390620972e-01
1.927138443764089271e-01
-7.126919690800119778e-01
-3.479925103823617860e-01
-4.712530503729641662e-01
-4.295694450012561560e-01
-3.482773944600232596e-01
4.988202249949034162e-01
-7.406368509004959133e-01
9.170187918675638539e-01
-1.135307052765321956e-02
3.870680963160142429e-01
-7.092497516326066176e-01
-1.296409455750555662e-01
-9.152334754589717125e-01
8.512971791412056177e-01
-7.881469287735323181e-01
9.249402008852725121e-01
3.356836464606816062e-01
3.898101847500208272e-01
9.105676389673091897e-01
5.851500869343273514e-02
-7.074635802775570692e-01
6.505166349919226931e-01
-9.634248624092180968e-01
-7.817105742062371299e-01
6.775639368462618162e-01
-7.805411464138067856e-01
1.251480276603069708e-01
-2.569391859740131068e-01
8.980630100860609311e-02
-4.928820441510994854e-01
1.163922790371045846e-01
-3.599831065873642100e-01
2.177700517075997766e-02
1.953319066735670351e-01
-8.970853098017481653e-01
-5.332629553699583802e-01
3.653418831500077069e-02
3.496162954318251526e-01
-1.023696289246522895e-01
-7.938982423999190186e-01
-8.944642074892363848e-01
4.730862490040763646e-01
8.312851346436482824e-01
-1.975719850932962096e-01
-1.533970481921873574e-01
1.993046311409123472e-01
1.605837128269849146e-01
-9.266091255920656522e-01
-9.421094100638627289e-01
7.321496285071444898e-01
-9.076871655136897754e-01
-7.423472011551404126e-01
-3.428578832710411639e-01
-3.360172318760608068e-01
8.614598642553856767e-01
-6.098344768373817892e-01
2.867935030335511115e-01
6.690266114017962007e-01
-4.384887134285002652e-01
4.064027925692086374e-01
-2.016540609236083803e-01
-5.982332117582005448e-01
4.723599690474067359e-01
-1.492403047058001864e-01
-7.983372451069237208e-01
-2.894916018680524505e-01
-5.413101783420160018e-01
6.199673878599039067e-01
-6.417609327900226646e-01
-1.624352909064248340e-01
-6.721549731400213723e-01
6.172139470015978180e-01
-5.909002980750779344e-01
-5.293355449852652495e-01
-8.335937927254757351e-01
-2.670540870578135273e-01
-7.208302780825004419e-02
-4.613339441807959851e-01
6.651974507416060778e-01
2.214178286566026443e-01
8.719682359556422124e-01
-1.754433790781224634e-01
-7.598561089204050045e-01
5.372022178285640326e-01
5.791083008895139272e-01
-2.969962573894331381e-01
8.246947385284471022e-01
8.708486247914759559e-03
5.336548577264379478e-01
9.642853386900349655e-01
3.583075324144107121e-01
9.668043865082922572e-01
-2.771717756355667195e-01
-4.427106823070019459e-01
-5.602818100145112723e-01
5.438566752213902511e-01
3.155865769060526294e-01
7.651585954979767124e-02
-1.504395864404390881e-01
1.876739754586682629e-01
3.142703969280751242e-01
-5.771917492542000261e-01
3.259358022665381771e-01
1.806288231176320647e-01
-6.337687189310567959e-01
1.644532230292692354e-01
7.032978056592926741e-01
-9.587506621178711885e-01
5.865899837899388736e-01
-7.267913332438293850e-01
-1.066955937884532801e-01
